#include "nn_weights.h"

// ============================
// Layer 0 : Linear(6 -> 16)
// ============================
const float W0[16][6] = {
  {0.54583877, 0.49770266, -0.53184301, 0.29931027, -0.17343226, 0.43986619},
  {-0.80753142, -0.73803133, -0.08412895, -0.40993401, 0.00626595, -0.44134864},
  {-0.22019531, -0.25033209, 0.21469694, -0.10487588, -0.08584545, 0.19894293},
  {0.42251834, -0.28873605, -0.71210891, -0.01631730, -0.45536715, 0.09661736},
  {0.15774278, 0.07638265, 0.22788487, -0.01799927, 0.22994953, -0.17534776},
  {0.09914137, 0.46330905, -0.26832804, 0.29266638, 0.31752032, -0.27898979},
  {0.19494562, -0.09728292, 0.40378073, 0.18037470, 0.21148622, -0.21345457},
  {0.50890619, -0.18736660, 0.37864774, 0.19995339, 0.17899659, -0.07071208},
  {0.33428144, 0.03627163, -0.18361720, 0.43720466, 0.19255753, 0.44953308},
  {0.00337146, 0.69553757, 0.13619727, 0.05095332, -0.15654880, -0.11986877},
  {-0.49114752, 0.28459987, -0.43709257, 0.18861164, 0.31891447, -0.11255353},
  {0.37960541, -0.07319334, -0.07694693, -0.39986864, 0.13123310, 0.21032952},
  {-0.83855790, -0.04923784, -0.06939500, 0.18725440, -0.71174216, 0.76063561},
  {0.01960419, -0.00347157, 0.30864456, 0.03275691, 0.37774140, 0.32930794},
  {0.55000913, -0.40055299, -0.07872871, -0.41725370, -0.27866247, 0.36276594},
  {-0.14035887, 0.32814011, 0.31068313, -0.32967234, -0.39911053, 0.12914731},
};

const float b0[16] = {
  -0.36555380, -0.03424428, 0.03226031, -0.00569529,
  -0.30345416, 0.01607935, 0.40999761, -0.34906891,
  -0.15129057, 0.12194168, -0.33712766, 0.19287825,
  0.36647195, 0.36393607, 0.43322906, 0.16550472
};

// ============================
// Layer 1 : Linear(16 -> 8)
// ============================
const float W1[8][16] = {
  {0.27679595, 0.23658797, 0.07534643, -0.01812223, 0.16015528, 0.03255029, 0.31608236, 0.11022041, 0.25045377, -0.07523182, -0.37917405, -0.15703824, -0.23270395, -0.04979876, -0.17565669, 0.20802924},
  {-0.15067118, -0.37607920, 0.13948867, -0.13912685, -0.14304201, 0.26245561, -0.19942603, 0.10391968, -0.35585722, 0.13282175, 0.41405776, 0.07320124, 0.31606352, 0.05244581, 0.04825162, -0.22067425},
  {0.39746141, -0.25173333, -0.16846488, 0.30445203, 0.27893329, 0.08730676, -0.30809280, 0.24367414, 0.10040131, -0.29192755, 0.23807070, 0.22936118, 0.72114408, 0.08469993, 0.44034818, -0.17540370},
  {-0.32251844, 0.66278726, -0.09019794, -0.59601235, -0.22733404, 0.00171432, 0.05449641, -0.33055380, 0.03970009, 0.39279029, -0.41537055, -0.29754588, -0.55638033, 0.01041655, -0.52918434, 0.02056028},
  {0.11448180, 0.03310343, -0.05752311, 0.08184879, 0.15031268, 0.18696237, 0.19393212, 0.07379124, 0.18442643, -0.11874812, -0.05654927, 0.08441947, -0.00873597, -0.07541051, 0.05884329, 0.06388781},
  {-0.45976734, 0.40822393, -0.10902444, -0.50183922, -0.18434539, 0.03395609, -0.06305744, -0.02007921, -0.03954755, 0.33491531, 0.01160466, -0.23588961, -0.60087019, -0.16228889, -0.37902912, 0.20259842},
  {0.37295121, 0.54680473, -0.22514357, -0.28572136, -0.06422082, 0.27170432, 0.33061194, -0.06003569, 0.37375307, 0.30057767, -0.34302810, -0.12428733, -0.36689228, -0.26889768, -0.23156048, -0.18449101},
  {-0.07268310, 0.01849870, 0.21391514, -0.19094865, -0.14202200, 0.28538591, -0.03436029, -0.15241885, -0.27188495, 0.08349114, 0.10452261, 0.28186020, 0.26748046, 0.20362727, -0.07886719, 0.21586247},
};

const float b1[8] = {
  -0.13938788, 0.02705254, -0.15343648, 0.16365649,
   0.11491655, 0.23438790, 0.09623211, -0.14715892
};

// ============================
// Layer 2 : Linear(8 -> 4)
// ============================
const float W2[4][8] = {
  {0.59430623, -0.06465082, -0.87611699, 0.75669664, -0.07239214, 0.37621698, 0.37126294, -0.08253700},
  {0.26914093, 0.00229646, -0.04063996, -0.31484598, -0.12819740, -0.05642952, -0.04735733, -0.25146019},
  {0.22187480, -0.59434903, -0.42818490, 0.77007520, 0.28944138, 0.79087311, 0.98677152, -0.36436701},
  {-0.39410087, 0.63671702, 0.33848023, -0.58607876, 0.09770301, -0.31332842, -0.65289468, 0.40068719},
};

const float b2[4] = {
  0.37594229, -0.05702319, 0.40623942, -0.31128272
};

// ============================
// Layer 3 : Linear(4 -> 2)
// ============================
const float W3[2][4] = {
  {-1.35560191, 0.44170719, -1.40838873, 1.06475890},
  {0.71832150, 0.31929615, 1.49629843, -0.86823291},
};

const float b3[2] = {
  -0.53456926, 0.11190934
};
